svm_type one_class
kernel_type rbf
gamma 0.01
nr_class 2
total_sv 29
rho 20.8874
SV
1 1:-0.609733 2:-0.289104 3:-0.554311 4:-0.350438 5:-0.31205 6:-0.383691 7:-0.0598531 8:-0.46319 9:-0.634233 10:0.14641 11:0.0823104 12:0.337429 13:-0.0988716 14:-0.42984 15:-0.0394639 16:-0.130531 17:-0.332987 18:-0.238862 19:-0.0173211 20:-0.00111327 21:-0.929048 22:-0.721806 23:-0.825607 24:-0.0825358 25:0.488983 26:-0.134783 27:0.399462 28:0.669997 29:0.0731427 30:0.5349 31:0.0106821 32:-0.288519 33:-0.793892 34:-0.78968 35:-0.82893 36:0.563897 37:0.0564143 38:-1 
1 1:-0.984396 2:-1 3:-0.848985 4:-0.875698 5:-0.98067 6:-1 7:-0.832925 8:-0.938578 9:-1 10:0.00320308 11:-0.869531 12:-0.964473 13:-1 14:-0.945938 15:-0.624751 16:-0.400418 17:-0.900814 18:-0.646559 19:-0.724511 20:-0.869709 21:-0.750983 22:-1 23:-1 24:-1 25:-1 26:-1 27:0.456152 28:-0.093312 29:-0.349646 30:-0.431518 31:0.38153 32:-0.622017 33:-0.54218 34:0.88875 35:0.448633 36:-1 37:-0.338793 38:0.922121 
1 1:-0.814495 2:-0.805338 3:-0.719103 4:-0.662517 5:-0.682368 6:-0.676636 7:-0.814631 8:-0.802592 9:-0.56368 10:0.276513 11:-0.235285 12:-0.833025 13:-0.0622751 14:-0.562277 15:-0.495494 16:-0.417801 17:-0.331993 18:-0.317779 19:-0.336312 20:-0.511285 21:-0.778086 22:-0.249525 23:0.999355 24:0.773479 25:-0.524293 26:0.621613 27:-0.889855 28:-1 29:-0.583642 30:-0.612922 31:-0.36029 32:0.387298 33:0.61283 34:0.851601 35:0.671498 36:-0.272981 37:0.216213 38:-0.415978 
1 1:-0.28528 2:0.0501575 3:-0.301705 4:0.0548269 5:0.18102 6:-0.492988 7:-0.412445 8:0.105605 9:-0.214083 10:-0.534156 11:0.776519 12:0.551773 13:0.456298 14:-0.366196 15:-0.0022892 16:-0.131119 17:0.188181 18:0.159515 19:-0.532492 20:-0.679316 21:-0.153225 22:-0.334882 23:-0.635821 24:0.936793 25:0.983828 26:0.718193 27:0.410492 28:-0.423988 29:-0.827492 30:0.0456357 31:-0.716507 32:-0.810648 33:-0.828767 34:0.556648 35:0.529771 36:0.415695 37:-0.710895 38:0.0567476 
1 1:-0.0051374 2:0.0773177 3:-0.330943 4:0.340204 5:0.654937 6:-0.0880899 7:0.336794 8:0.559041 9:-0.075819 10:0.443771 11:0.498269 12:0.46044 13:0.0343397 14:0.270971 15:0.00262916 16:-0.287505 17:0.918389 18:0.814091 19:0.0983552 20:0.692101 21:0.587772 22:0.00102129 23:0.158635 24:0.552987 25:0.542545 26:0.120892 27:-0.38694 28:0.0849562 29:-0.241331 30:0.658248 31:0.697526 32:0.647639 33:0.84673 34:-0.693516 35:0.619047 36:0.497639 37:-0.312158 38:-0.496953 
1 1:-0.137014 2:-0.273714 3:0.150944 4:-0.296097 5:-0.555089 6:-0.0909112 7:-0.130609 8:-0.585118 9:-0.187381 10:-0.494788 11:-0.17485 12:-0.768485 13:-0.325648 14:0.571307 15:0.0405402 16:0.778057 17:0.349261 18:-0.253461 19:0.496069 20:0.809033 21:-0.311523 22:0.317226 23:-0.321165 24:0.620185 25:-0.618594 26:0.305294 27:0.454479 28:0.244339 29:-0.566155 30:0.602403 31:-0.936377 32:-0.0491895 33:-1 34:0.409451 35:0.722715 36:0.447195 37:-0.160761 38:-0.631637 
1 1:0.0456582 2:0.632317 3:0.495806 4:0.275251 5:0.841428 6:0.780789 7:0.631338 8:0.567241 9:1 10:0.440685 11:0.476708 12:0.733995 13:1 14:-0.049226 15:0.281328 16:0.356959 17:0.0581095 18:0.45387 19:0.7762 20:0.329083 21:-0.0901025 22:1 23:-0.60783 24:-0.027175 25:0.421022 26:0.867241 27:0.0968951 28:0.321506 29:-0.0829 30:0.272952 31:-0.616411 32:-0.608167 33:0.252123 34:0.302254 35:0.212571 36:0.518019 37:-0.266568 38:-0.570278 
1 1:-0.0572718 2:0.402418 3:0.30773 4:0.123779 5:0.765949 6:0.0119137 7:0.0778017 8:1 9:0.301692 10:0.651505 11:0.816494 12:0.096736 13:0.109363 14:0.0326163 15:0.231376 16:0.289001 17:0.331604 18:0.70543 19:0.0181503 20:0.259777 21:1 22:0.479835 23:-0.566468 24:0.970184 25:0.22856 26:0.258821 27:-0.154564 28:0.048221 29:-0.217523 30:0.0980776 31:-0.746094 32:-0.274391 33:0.74594 34:0.464829 35:0.675081 36:0.606272 37:-0.553623 38:-0.308337 
1 1:1 2:-0.129538 3:-0.371356 4:1 5:0.00700201 6:-0.0640255 7:1 8:0.449337 9:0.11529 10:0.89855 11:0.903211 12:1 13:0.405794 14:0.640706 15:-0.589065 16:-1 17:1 18:-0.412538 19:-0.423402 20:1 21:-0.0562875 22:-0.0282699 23:-0.451601 24:0.442249 25:0.724801 26:0.419973 27:0.859198 28:0.187666 29:0.523237 30:-0.71986 31:0.0634704 32:-0.896769 33:-0.719531 34:-0.519236 35:-0.908844 36:0.0192162 37:-0.365558 38:0.0105576 
1 1:-0.507849 2:0.0805633 3:-0.463993 4:-0.47919 5:0.108115 6:0.0576716 7:-0.710401 8:-0.0197866 9:0.249872 10:0.502067 11:-0.678785 12:-0.536378 13:-0.100457 14:-0.621574 15:0.122477 16:-0.540141 17:-0.691322 18:0.220464 19:0.343053 20:-1 21:-0.228406 22:0.516717 23:-0.857438 24:-0.898292 25:-0.821901 26:-0.0196746 27:1 28:1 29:1 30:-0.424148 31:-1 32:-0.93939 33:-0.807837 34:-0.570507 35:-0.92791 36:-0.402994 37:0.394689 38:-0.509184 
1 1:-0.53378 2:-0.861061 3:-0.951963 4:-0.524738 5:-0.726733 6:-0.972948 7:-0.342975 8:0.262726 9:-0.613402 10:-0.164347 11:0.282027 12:-0.257642 13:-0.303934 14:-0.572395 15:-1 16:-0.996245 17:-0.700155 18:-1 19:-1 20:-0.601558 21:0.16799 22:-0.597329 23:-0.822383 24:0.198317 25:-0.320169 26:-0.297179 27:0.308524 28:0.348902 29:-0.635537 30:0.581741 31:0.214237 32:-0.796962 33:-0.690307 34:-0.515875 35:0.257744 36:-0.538927 37:-0.0886372 38:0.195437 
0.4437855528764797 1:-0.176722 2:0.693029 3:0.066992 4:0.0925192 5:0.335664 6:0.0836801 7:0.367747 8:0.518653 9:0.294702 10:0.617902 11:0.869059 12:0.304863 13:0.147545 14:-0.307618 15:0.689602 16:0.281621 17:-0.036408 18:0.237028 19:0.193284 20:0.260151 21:0.327725 22:0.392752 23:-0.373662 24:0.859613 25:0.37606 26:0.167378 27:0.164764 28:0.24817 29:-0.093229 30:0.419117 31:0.397113 32:-0.0696669 33:0.218649 34:-0.511756 35:0.235417 36:0.183432 37:-0.519717 38:0.0429432 
1 1:-0.754288 2:-0.398923 3:-0.62921 4:-0.376077 5:-0.152613 6:-0.464253 7:-0.631091 8:-0.392905 9:-0.308449 10:0.46794 11:-0.0949008 12:-0.0509955 13:-0.311985 14:-0.811937 15:-0.479896 16:-0.541616 17:0.137032 18:0.0424777 19:-0.193348 20:-0.263724 21:-0.379587 22:0.135734 23:0.599191 24:0.763219 25:0.660756 26:0.11871 27:-0.952121 28:0.235929 29:-0.137571 30:-0.618505 31:0.831774 32:0.78214 33:0.658043 34:-1 35:-0.56796 36:0.0581243 37:-0.386084 38:-0.00127204 
1 1:-0.792567 2:-0.446014 3:-0.977452 4:-0.264603 5:-0.600053 6:-0.894994 7:-0.276224 8:-0.4966 9:-0.740389 10:0.238949 11:0.377715 12:0.134335 13:0.0586154 14:-0.83637 15:-0.612837 16:-0.79329 17:-0.116458 18:-0.889837 19:-0.876221 20:-0.298656 21:-0.827321 22:-0.849684 23:-0.567671 24:0.709598 25:0.311596 26:0.266162 27:-0.0355943 28:0.314555 29:-0.0208878 30:0.641101 31:0.201859 32:-0.910532 33:0.687362 34:-0.263507 35:-0.736009 36:-0.00208181 37:-0.472064 38:0.157718 
1 1:-0.919927 2:-0.744236 3:-1 4:-0.823988 5:-0.691024 6:-0.910476 7:-0.752182 8:-0.76852 9:-0.686658 10:-0.381341 11:-0.836324 12:-0.655392 13:-0.686734 14:-0.649795 15:-0.398849 16:-0.810429 17:-0.457907 18:-0.255099 19:-0.521879 20:-0.219123 21:-0.739129 22:-0.283634 23:-0.552945 24:-0.596815 25:0.0650432 26:0.00979677 27:-0.396768 28:-0.427381 29:-0.890866 30:-0.342614 31:-0.470117 32:-0.624516 33:0.631762 34:0.455272 35:0.793385 36:0.143252 37:-0.682816 38:0.274749 
1 1:0.760495 2:1 3:1 4:0.48355 5:0.73024 6:1 7:0.305644 8:0.269296 9:0.823105 10:1 11:0.491974 12:0.553105 13:0.156328 14:1 15:1 16:0.494974 17:0.984283 18:1 19:1 20:0.518044 21:0.158973 22:0.915072 23:0.310772 24:0.448397 25:1 26:0.143622 27:0.196957 28:-0.922909 29:-0.137971 30:0.50895 31:-0.461941 32:-0.0257816 33:-0.860485 34:0.849208 35:-1 36:0.324754 37:-0.585654 38:-0.00888952 
1 1:-0.522745 2:-0.768284 3:-0.303345 4:-0.601492 5:-0.771164 6:-0.270505 7:-0.80934 8:-0.777891 9:-0.217718 10:-0.0939957 11:-0.600881 12:-0.712679 13:-0.276853 14:-0.0453215 15:-0.516981 16:0.0118721 17:-0.328746 18:-0.503787 19:0.387571 20:-0.661758 21:-0.774302 22:0.159154 23:0.707458 24:-0.213042 25:-0.0715185 26:0.245964 27:-0.972611 28:-0.885983 29:-0.78442 30:-0.56748 31:-0.191495 32:0.152738 33:0.698308 34:0.866842 35:0.75967 36:0.421843 37:-0.384561 38:-0.340173 
0.2174347392306702 1:-0.614243 2:-0.555924 3:-0.825914 4:-0.521783 5:-0.332046 6:-0.769575 7:-0.336745 8:0.0973541 9:-0.586747 10:0.646613 11:-0.0624803 12:0.241951 13:-0.340775 14:-0.796515 15:-0.243942 16:-0.468379 17:-0.898737 18:-0.133989 19:-0.546762 20:-0.691542 21:0.0743463 22:-0.569123 23:-0.75988 24:-0.258245 25:0.359185 26:-0.475266 27:-0.302018 28:0.217361 29:-0.0543196 30:0.301107 31:-0.0565418 32:-1 33:0.854989 34:0.529297 35:0.116552 36:0.161612 37:-0.476605 38:0.0114017 
0.07570105188463369 1:-0.194913 2:-0.0857928 3:-0.227527 4:-0.0693849 5:-0.227804 6:0.042498 7:-0.12873 8:0.00756322 9:-0.139568 10:0.222235 11:-0.230878 12:0.119384 13:0.530833 14:-0.102117 15:-0.165782 16:-0.225673 17:0.0783829 18:-0.286666 19:0.12859 20:0.0794747 21:-0.0260415 22:-0.179789 23:-0.0771206 24:-0.100308 25:0.288166 26:0.89264 27:0.289333 28:0.198459 29:0.0623973 30:0.755001 31:0.4045 32:0.850264 33:-0.823681 34:-0.771224 35:-0.885455 36:0.340058 37:-0.608082 38:0.00362411 
1 1:0.46972 2:0.725178 3:0.777735 4:0.518828 5:0.60356 6:0.044205 7:0.301244 8:0.487127 9:0.424344 10:0.518432 11:1 12:0.188661 13:0.380787 14:0.384337 15:0.455756 16:0.427704 17:0.670709 18:0.43237 19:-0.244284 20:0.213067 21:0.193428 22:0.177523 23:-0.0741459 24:1 25:0.193261 26:0.44252 27:-0.605039 28:0.160152 29:-0.186241 30:0.361653 31:0.23045 32:0.550957 33:0.933513 34:-0.632775 35:0.65002 36:0.13829 37:-0.301069 38:-0.177057 
1 1:-0.0445339 2:0.441689 3:0.862734 4:0.0639977 5:0.412497 6:0.584077 7:0.202502 8:0.0400061 9:0.523743 10:0.111816 11:0.0245515 12:0.134779 13:0.36688 14:0.182665 15:0.442714 16:0.757456 17:0.604463 18:0.718025 19:0.781512 20:0.807958 21:0.174224 22:0.894922 23:0.0135541 24:0.380676 25:0.64847 26:0.907478 27:0.00493244 28:0.2138 29:-0.312493 30:0.453114 31:-0.573754 32:0.553474 33:0.624033 34:-0.513327 35:0.877174 36:0.381976 37:-0.414715 38:-0.266779 
1 1:-1 2:-0.986769 3:-0.867685 4:-1 5:-1 6:-0.90609 7:-1 8:-1 9:-0.851717 10:-1 11:-1 12:-1 13:-0.688076 14:-0.860323 15:-0.438189 16:-0.344848 17:-1 18:-0.481141 19:-0.434842 20:-0.994049 21:-0.715719 22:-0.458533 23:-0.944269 24:-0.970826 25:-0.186298 26:-0.204435 27:-0.314714 28:-0.355735 29:-0.949625 30:0.390713 31:0.60377 32:-0.717218 33:0.834409 34:1 35:0.54966 36:-0.612951 37:-0.588196 38:0.861969 
1 1:-0.53879 2:-0.419269 3:-0.938907 4:0.430183 5:-0.283065 6:-0.580284 7:0.668274 8:-0.141002 9:-0.223589 10:0.589715 11:0.773371 12:0.0626897 13:0.195486 14:-1 15:-0.519391 16:-0.982152 17:0.308593 18:-0.399351 19:-0.573474 20:0.66924 21:-0.478752 22:-0.327067 23:-0.154372 24:0.860021 25:0.194342 26:0.0566722 27:-0.00721712 28:-0.102518 29:-0.31561 30:0.16677 31:0.333091 32:-0.66836 33:0.654173 34:0.861211 35:-0.53456 36:-0.122877 37:0.103918 38:-0.420282 
1 1:-0.773993 2:-0.619143 3:-0.848462 4:-0.701524 5:-0.587181 6:-0.524734 7:-0.77458 8:-0.662533 9:-0.164686 10:0.41605 11:-0.610009 12:-0.843831 13:-0.28161 14:-0.454385 15:-0.358343 16:-0.816283 17:-0.363187 18:-0.075567 19:-0.286919 20:-0.287299 21:-0.482684 22:0.382703 23:1 24:0.0896264 25:-0.114564 26:0.512264 27:-1 28:-0.524143 29:-0.424461 30:-0.951485 31:0.210088 32:0.671754 33:0.500698 34:0.660518 35:0.685444 36:-0.251682 37:0.0727216 38:-0.2638 
1 1:-0.881291 2:-0.607946 3:-0.688012 4:-0.752802 5:-0.611438 6:-0.656792 7:-0.753962 8:-0.786396 9:-0.517312 10:-0.155436 11:-0.583569 12:-0.841611 13:-0.410674 14:-0.611923 15:-0.113529 16:-0.365884 17:-0.386254 18:-0.0256586 19:-0.153801 20:-0.254996 21:-0.471828 22:-0.0395689 23:0.734597 24:0.135677 25:-0.258403 26:0.286268 27:-0.852017 28:-0.610866 29:-0.735806 30:-0.357061 31:0.0643488 32:0.44549 33:0.740338 34:0.757817 35:0.908688 36:-0.994121 37:1 38:-0.686634 
0.02438090321614546 1:-0.373991 2:-0.569065 3:-0.262748 4:-0.340222 5:-0.296759 6:-0.485354 7:-0.499815 8:-0.320889 9:-0.156671 10:-0.817483 11:-0.185867 12:-0.576049 13:-0.419457 14:0.124443 15:-0.335933 16:0.0801579 17:0.368151 18:0.163705 19:-0.217381 20:-0.191626 21:-0.168685 22:0.227611 23:-0.610821 24:0.192779 25:-0.161792 26:-0.202294 27:0.204466 28:0.089343 29:-0.669877 30:0.8378 31:1 32:0.194663 33:-0.813796 34:-0.851988 35:0.660252 36:-0.18525 37:0.0557747 38:-0.304921 
1 1:-0.398115 2:-0.376752 3:0.461291 4:-0.282422 5:-0.363117 6:-0.0591415 7:-0.440481 8:-0.574779 9:-0.0443171 10:0.0940539 11:-0.218602 12:-0.729406 13:-0.126685 14:-0.0136014 15:-0.0918127 16:0.93111 17:0.406717 18:0.138418 19:0.509272 20:0.0321242 21:-0.415858 22:0.478843 23:0.734799 24:0.342752 25:-0.352866 26:0.438908 27:-0.0191332 28:-0.597035 29:-0.597682 30:1 31:0.241647 32:0.481237 33:-0.517254 34:0.689235 35:0.695771 36:1 37:-0.685889 38:-0.514876 
1 1:-0.631537 2:-0.772143 3:-0.240229 4:-0.500054 5:-0.61075 6:-0.285821 7:-0.51539 8:-0.752782 9:-0.0807121 10:0.262477 11:-0.385112 12:-0.898157 13:-0.208295 14:-0.242425 15:-0.620839 16:0.0462342 17:0.127939 18:-0.316233 19:0.164906 20:0.219733 21:-0.797568 22:0.308768 23:0.887516 24:0.295388 25:-0.660368 26:0.328706 27:-0.76313 28:-0.0246776 29:-0.355948 30:-0.472067 31:0.686561 32:1 33:0.64207 34:-0.496345 35:0.880604 36:0.090629 37:-0.351548 38:-0.0727059 
0.238697752792071 1:-0.519495 2:-0.313815 3:0.266737 4:-0.428525 5:-0.328207 6:-0.142312 7:-0.590151 8:-0.50317 9:-0.382497 10:-0.601013 11:-0.654863 12:-0.410702 13:-0.342116 14:0.0207566 15:-0.00459863 16:0.639713 17:0.51551 18:0.239423 19:0.514069 20:0.242249 21:-0.301198 22:-0.0476762 23:0.232572 24:0.0302288 25:0.5561 26:0.340755 27:-0.151872 28:-0.704714 29:-1 30:0.848876 31:0.0383249 32:-0.0784002 33:0.446575 34:0.784912 35:0.802713 36:-0.472931 37:-0.45362 38:0.571939 
